{
  "layers": [
    {
      "activation": 2,
      "biases": [
        0.08545096393492131,
        0.15562595383467448,
        0.011196076707174053,
        -0.11189443418390886,
        -0.0448864907486555,
        0.043267303083995956,
        -0.005958118143061782,
        -0.10641800920389274,
        -0.011466324253456513,
        -0.0005722279608413092,
        0.1779646321740892,
        0.002702493733347767,
        -0.06971003438313898,
        -0.035801809377519894,
        -0.9542624481732744,
        -0.02777854615305588,
        -0.34617265662291474,
        -0.008523676166901663,
        -0.006839415530492744,
        0.07070309849557235,
        0.07369313339503882,
        0.05128965653665151,
        -0.019790787266220872,
        -0.024607661765759258,
        -0.0009581812193596163,
        0.016115006556845304,
        0.05117447151871919,
        -0.10328008121904478,
        -0.028033664656277525,
        -0.05341322689760582,
        -0.02011109205546287,
        -0.47500037162342057
      ],
      "cols": 32,
      "rows": 128,
      "weights": [
        [
          0.0999545162756987,
          -0.13968114143944607,
          0.04916903898810061,
          0.06533059037322583,
          -0.0493313091169226,
          -0.11185206159259013,
          -0.1632995268428631,
          -0.015030739799936556,
          -0.10363150392669078,
          0.10070912725768134,
          0.020597633874361695,
          0.15531481405035744,
          0.002149902579488122,
          -0.0059029349298916605,
          -0.13749520749718006,
          0.08111264230868484,
          -0.1967469956213097,
          0.06115441576078144,
          0.07648852957100703,
          -0.015891461733799905,
          -0.0727418092757119,
          -0.10772790458210552,
          0.056015671963330745,
          0.16705434247010512,
          -0.09216114832099438,
          0.11015845394126414,
          -0.0989138197801851,
          -0.11181185192243692,
          -0.011781179382619729,
          -0.18595207872323066,
          -0.06213945091453558,
          0.12148863688581689
        ],
        [
          0.05927486972446841,
          0.12212042076512085,
          0.1346512188637053,
          -0.11432872081192473,
          -0.22813343503260597,
          -0.03210492830880507,
          0.0471190271046452,
          -0.3279969994949167,
          0.043965121870347734,
          0.07934915453359558,
          -0.019968786735740388,
          0.2080033140315356,
          0.12161404182375074,
          -0.051761154958289354,
          -0.04839608012999055,
          0.10063030115192045,
          -0.010066811264677063,
          0.06368789698545523,
          0.16806079860552556,
          0.010284956499935435,
          -0.09936969988272455,
          0.023931964335789535,
          0.11683874991390536,
          0.011048924607127487,
          0.06248534976918498,
          0.021314995668256058,
          0.0019753870699972496,
          -0.04686822271642573,
          0.05876961424089369,
          -0.04721572234315941,
          0.16077542542820672,
          0.0601537169344985
        ],
        [
          -0.1937854179072329,
          0.16217226472586263,
          0.08663734235358043,
          0.0374425611510181,
          -0.04981742436502181,
          -0.0233547551692575,
          0.10447895539273999,
          -0.2865918113029599,
          0.05942624350985811,
          0.15512571750865414,
          -0.0921491080903021,
          0.21663469063357196,
          0.09818795742760605,
          -0.052131074820403904,
          -0.060076031287731965,
          -0.0734229010632633,
          -0.15657758180513026,
          0.1452424656386008,
          0.11461772630125287,
          -0.08580071501953054,
          0.10209825546219424,
          -0.03218808548283673,
          0.12021335926634498,
          -0.010204814146928856,
          0.041767053997997974,
          0.039895081152596656,
          -0.09285619706903808,
          -0.1200177515300709,
          -0.02256156208419613,
          -0.15895701720623379,
          0.08543880995192085,
          0.10886277651179647
        ],
        [
          0.027314932754919648,
          -0.11215380315746422,
          0.14122282091162516,
          -0.09339271320438279,
          0.04284173142563857,
          0.06425565458052597,
          0.1634788437952049,
          -0.15549981464765014,
          -0.1370702634955402,
          0.036260196078140385,
          0.15199049085973487,
          0.08691073310426063,
          0.18612887482488266,
          -0.1001641476851581,
          -0.13086979287587167,
          0.17405004347156802,
          0.0933268793574973,
          -0.017767067091833715,
          -0.024133915748102957,
          -0.04458238299532021,
          -0.03662040037652287,
          -0.08918669902213253,
          0.08812801765084392,
          0.09688817252614672,
          -0.1368126697966044,
          -0.003470689927624371,
          -0.1668869939321418,
          -0.12283741850218151,
          -0.1452641927563459,
          -0.03754365080608153,
          -0.14858468478886888,
          0.12057959211175177
        ],
        [
          0.08460927265477444,
          -0.15452606046474762,
          -0.02377195077759095,
          -0.18759407623517185,
          -0.17210855795111674,
          0.07181425682086051,
          -0.12671227671517984,
          -0.28495231072605914,
          -0.12253526523355286,
          0.09797259088363364,
          0.09040935430022115,
          -0.0888943044158695,
          0.10727483939173622,
          -0.20064769645359562,
          -0.16894612463618808,
          0.006569802381116306,
          0.009203426498805267,
          0.15091574073442546,
          -0.05234462817018599,
          -0.10243904710151581,
          0.05749585103098532,
          0.06277981853546794,
          0.16246288286323612,
          -0.14877939549349753,
          0.12501280514703422,
          -0.16328416840042648,
          0.10440253839158145,
          -0.11915006348222469,
          -0.08116263971754314,
          -0.13415302529699388,
          -0.0016766707584664451,
          0.20670388599276665
        ],
        [
          0.1330769578667788,
          -0.0027267977253332912,
          -0.08292869263195171,
          -0.006664255790141649,
          -0.17184597935265852,
          -0.15205699359005748,
          -0.03571155940821761,
          -0.03388820970480731,
          -0.06590566215228327,
          -0.17414825540405807,
          0.09349979884175756,
          0.12421336411409664,
          0.008808007564931653,
          -0.11137666535337065,
          -0.005722550297739107,
          -0.09156566850461048,
          -0.07004433766262054,
          -0.0011770149969269183,
          -0.11196920332781093,
          -0.013989300730639287,
          -0.035518292122490316,
          0.20672747862678165,
          0.11684425017024448,
          -0.03558683665637245,
          -0.10130088350396169,
          -0.0354993532594874,
          -0.16797021594696357,
          0.15759032531273084,
          0.15842300537249876,
          -0.08876601795662459,
          0.026050851643000035,
          0.11620902429727047
        ],
        [
          -0.1051946715208163,
          -0.16733092986926051,
          0.09750665658780167,
          -0.152456783318358,
          -0.02917259481334633,
          0.08452432505979274,
          0.05112005769775073,
          -0.10806891506304361,
          -0.027140913267578837,
          0.06386858037124456,
          0.10870673178524994,
          0.1250429130322103,
          -0.02563627642664179,
          -0.08684785837407172,
          -0.06767227044830923,
          -0.0647345527623098,
          -0.02640136223315609,
          -0.17602680308684482,
          0.12699196258368525,
          -0.03585384874336614,
          0.02902037407897646,
          0.09621573019203737,
          0.055263790549707204,
          -0.19739507773465056,
          -0.08101002065200102,
          -0.1617848372909928,
          0.08795043249138558,
          -0.17542717821671072,
          0.15382071853760523,
          -0.1909819897625124,
          -0.1799988733991358,
          0.25298099592750367
        ],
        [
          0.06533603145801471,
          0.021376185943095517,
          0.12410089567626742,
          -0.22936948689805814,
          0.08083928614040815,
          -0.058727672671507365,
          -0.14986425932196845,
          -0.11124073053716882,
          -0.09934465871641529,
          -0.20573934373637992,
          0.18115538321076516,
          -0.07969622387119187,
          0.23711830826351724,
          -0.18545482279576184,
          0.030854467031578063,
          -0.20917445111503719,
          0.13408632022784095,
          0.06971071799539656,
          -0.05710024053160367,
          0.07693378319928469,
          -0.07566514108037965,
          0.14359730159755696,
          0.031599800674006834,
          0.025541328067786865,
          0.19702845405188296,
          -0.04584541894629688,
          0.10419862918443816,
          -0.03021933474637727,
          0.10052585867962811,
          0.10955916421543702,
          0.06555960324455162,
          0.21977208004227466
        ],
        [
          0.1497867475106341,
          0.0015114106160933154,
          0.14030115325648287,
          -0.15698277608621033,
          0.13620833840786875,
          -0.20029521384838228,
          -0.08269816442175695,
          -0.27695943488251185,
          0.047147674838710296,
          -0.02305011155774047,
          0.01796788708982884,
          -0.036782930824468034,
          0.2125234406323506,
          0.1071779327959872,
          0.008591573674288139,
          0.17319746178918777,
          0.016648930032932927,
          0.18513028898127162,
          0.025187764204880392,
          0.13062366039426881,
          -0.07385132864631437,
          -0.18680866780170985,
          -0.16669304385910455,
          -0.10082062858144043,
          -0.04915639628102428,
          0.17822336909427386,
          0.132933041417296,
          0.12999127798473614,
          0.14508123312414806,
          -0.004951811478944573,
          0.04553120177386276,
          0.3119908467997111
        ],
        [
          -0.05547760926655843,
          0.13646650014620665,
          -0.1185494784967206,
          0.06703302061225151,
          -0.1032535984165917,
          0.06273983550217115,
          0.06576705015195256,
          -0.05595514656848559,
          0.1519594967302288,
          0.04080625875931744,
          -0.02900572576742679,
          0.02591693761340872,
          0.06629602001765157,
          -0.0761801510789852,
          -0.0005965689776135263,
          0.05290982222074164,
          -0.11830782289839621,
          -0.17087822066960479,
          0.14721340501477992,
          -0.10777048474280895,
          0.1821448342322192,
          0.1236865952280049,
          -0.08470074335786391,
          -0.08653781514163013,
          -0.018756706007724753,
          -0.02544326322952145,
          0.19550897970314732,
          0.12594908461525456,
          0.020771875103064878,
          -0.20340156290098405,
          0.13306661743060397,
          0.36155657577726236
        ],
        [
          -0.15829031201471103,
          -0.12857706626851945,
          -0.18992439459909005,
          0.11970825490183302,
          -0.06838516328244479,
          0.09053555636004577,
          -0.010665885353652281,
          -0.18016121084215,
          -0.16538585804059697,
          0.13217405458566855,
          0.07621921543186032,
          -0.003927669842022128,
          -0.050961562939933355,
          0.024876048396476374,
          0.07248397367404966,
          -0.03391488093233757,
          -0.05175352564903049,
          -0.18086493266830642,
          0.10083839077904282,
          -0.02014023286692534,
          -0.027919611181813065,
          -0.1452217993028196,
          0.014057917466197391,
          0.08567931106721649,
          0.016365976893992724,
          0.11257260184611913,
          -0.08283939240770229,
          -0.1945826085076622,
          0.17953825640777965,
          0.1445077334158559,
          0.11673977594373033,
          0.11999993158223163
        ],
        [
          -0.028792785788239527,
          -0.008409258365175672,
          0.02084818203403568,
          0.10949782244574291,
          0.06869054589764367,
          0.1037361161781478,
          0.19542819472689243,
          -0.10132685587164326,
          0.026753661778904914,
          0.06350515538778818,
          -0.07183173902549568,
          0.1900383231781021,
          0.1878178480191238,
          -0.12454993747987507,
          -0.06165578344950826,
          -0.1250989142037732,
          -0.008272828187256357,
          -0.02153654752101055,
          0.11776561162045235,
          0.024257855584123664,
          -0.04479336497049117,
          -0.03530072097507087,
          0.1198365392519317,
          -0.11670446584296848,
          0.17496201298636152,
          0.11802062806768591,
          0.11513630891580949,
          0.15692623574997444,
          0.0178859092128001,
          -0.19612984143682144,
          0.06888846747614832,
          0.26625364800615764
        ],
        [
          -0.006829839253681451,
          -0.019134805649513843,
          0.09628402840634365,
          -0.03140607115666517,
          -0.027385909507501523,
          -0.21604090442724566,
          0.16193980544601114,
          -0.28035750380563434,
          0.18091655048541858,
          -0.1526481096543457,
          0.0994503113588284,
          0.19219753321165514,
          0.08639747700539037,
          0.09488332605308882,
          0.0216421276450495,
          0.09371551149987901,
          0.02864223560449688,
          -0.18418191439051593,
          -0.1535029681448195,
          -0.018326290195399986,
          0.18293635588940135,
          0.12522094463492137,
          -0.0894248743066555,
          -0.0010408888947805684,
          -0.028214646350759005,
          -0.22728158696991602,
          -0.034494088001945984,
          -0.05284090921865485,
          -0.09757841397051613,
          0.10567777413168061,
          -0.09166325015975757,
          0.079360557940428
        ],
        [
          -0.08594855225448182,
          0.07240819228805351,
          -0.11061071107393648,
          0.08269292180020027,
          -0.07742727627498176,
          0.23854811926776723,
          -0.002953940747568024,
          -0.04339949694224938,
          -0.1288693533466347,
          -0.08761369170958289,
          -0.18422367078386423,
          0.01147526537608721,
          0.12561438183381307,
          -0.08844699659913575,
          -0.0033048931031143653,
          -0.05440867372294234,
          0.05286982664351127,
          -0.0783491188681323,
          -0.06610393331795505,
          0.020397764600965373,
          -0.07814593342934321,
          -0.10360998211343665,
          -0.12628268461555384,
          -0.06615915993480483,
          0.03860298343778943,
          0.09201447115294213,
          -0.09344648946966479,
          -0.05098287268343416,
          -0.011392576872689023,
          -0.03549293811196895,
          -0.08586420780008995,
          0.22718784133566403
        ],
        [
          -0.0042288627233082405,
          0.07357143720872535,
          -0.20453423781212138,
          0.022096638403774644,
          0.08793345930330893,
          0.02535825778835974,
          -0.17040241515209814,
          -0.16371694303003445,
          0.1509222806450247,
          -0.056693307057539,
          -0.08315375679856143,
          0.06529480525758631,
          0.06567576797216666,
          -0.15020877562618667,
          0.01999936885811486,
          -0.1472807465448783,
          0.04889302474170034,
          0.09143287495555638,
          -0.10731349781299902,
          -0.18663840755789102,
          0.057758172111190866,
          -0.09103485796567348,
          0.06015432080311985,
          -0.08028862240814696,
          -0.0895216455968549,
          0.05817056565214937,
          -0.0432555199841942,
          0.13907765068795586,
          -0.06781331353318647,
          0.055130694873725274,
          -0.12030777140720796,
          0.2939492498672145
        ],
        [
          -0.008149942227031273,
          0.1519406274121452,
          -0.13992522595315948,
          0.14218261051820008,
          0.0665182830007715,
          -0.15063914288084906,
          0.07149836046622497,
          -0.3072756984397076,
          0.13754853024717045,
          -0.06530272264485205,
          0.008232163558172837,
          0.09445770565864463,
          0.056670476743046025,
          0.0003745435411441962,
          0.07361082806767584,
          0.029325911344897725,
          0.06510287285184058,
          0.011042677361854734,
          -0.004326811451283098,
          0.0695084350545531,
          0.12610796898162147,
          0.0051579165025719236,
          -0.008803692159073532,
          0.037526061216446846,
          -0.08183787595452151,
          -0.07946037627316502,
          0.08358016480987533,
          0.029991883809269267,
          -0.006445648321744659,
          0.07663511081446446,
          -0.1621874820625722,
          0.14090382928940867
        ],
        [
          -0.07918294783180328,
          0.09852329344094467,
          -0.028674858697429532,
          0.09162837620246589,
          -0.031965693998933654,
          -0.11466899130318499,
          -0.08501179923490097,
          -0.3400691711811863,
          -0.06717767088674616,
          0.10148393272292822,
          -0.05785577986978737,
          0.10157405656546732,
          0.21766531535657294,
          0.16681264896239453,
          0.16699291090489013,
          0.08148331665524212,
          0.1488621882296507,
          -0.15596633345665475,
          0.10944497114308585,
          -0.1464540376575095,
          0.006499415818470266,
          -0.14726404072548901,
          -0.14881460838508,
          0.17263284804090487,
          0.0814848107491058,
          0.18745338489489063,
          0.030169338217992354,
          -0.1478856134187113,
          0.056773678079914604,
          0.013855532750336423,
          -0.1281064952947942,
          0.25316987771557486
        ],
        [
          -0.018098627470071967,
          0.1072672414553924,
          -0.06994824211035539,
          -0.09852601977815197,
          0.011969236057903149,
          0.07516015018449637,
          0.09849096593433497,
          -0.2972316449297055,
          0.0028767317711373146,
          0.04682061226381226,
          -0.07447154367117732,
          -0.08982884657905506,
          -0.034318030664601776,
          -0.07532822828787752,
          0.12464999172042723,
          0.08523695365426495,
          -0.021509542326367627,
          -0.1901730055833458,
          -0.1518146658639709,
          0.048041239795678856,
          -0.14324376451586773,
          0.03193228214397969,
          -0.1319216506697734,
          -0.13741948663616652,
          0.04180836784453342,
          -0.08067978617517108,
          -0.022815932594746846,
          0.1935281328680927,
          0.15503594787954442,
          -0.033820002371618585,
          0.1332791775727353,
          0.08139651699789366
        ],
        [
          0.06266269636438697,
          0.14384247658542473,
          0.18389817453826882,
          -0.1548828037042067,
          -0.009307570838638495,
          0.12135135061295425,
          0.000677060635698021,
          -0.07355693120898589,
          -0.17927579931293183,
          0.10379351396370984,
          -0.19023037158791192,
          0.14417538767230284,
          -0.1113445161280382,
          -0.14016510079058667,
          0.12838385412191647,
          -0.19562159905072657,
          0.030072212241842415,
          -0.026807129665665536,
          -0.07141791989462837,
          -0.027434435853959244,
          -0.07251803048727243,
          -0.0166185268129142,
          0.15305610986169055,
          -0.0859216150019318,
          0.11043655340000087,
          -0.06540062936408837,
          0.015366960879204711,
          -0.05389017778618512,
          0.14704835456358745,
          0.056962412899061746,
          -0.13181438152946612,
          0.1491873189719268
        ],
        [
          0.16294045527394038,
          -0.08843342308957816,
          0.0962104622481169,
          0.13826094308968576,
          -0.038930995004483444,
          0.01802767967588299,
          0.12228933045530176,
          -0.25190683485466536,
          -0.1452844700731131,
          0.1480512745305496,
          -0.20084086222713265,
          0.15751470333159062,
          0.08524849297752224,
          -0.029279397005329444,
          0.06833672749914073,
          -0.043619793224970664,
          -0.009027260923233122,
          -0.08962488219679637,
          0.020380206161653047,
          0.02452379033672099,
          0.06553262387714733,
          -0.08155227088174177,
          -0.04742902733359883,
          0.08656788096102946,
          -0.13716988652269171,
          0.05536372266297599,
          0.09636933015958897,
          0.0034672155740663097,
          0.043549348652175364,
          -0.17944456975118053,
          0.02069927770729608,
          0.23484000697992327
        ],
        [
          -0.06093668876812771,
          -0.02540885834447584,
          -0.11017863763961361,
          -0.13043439341757918,
          -0.003420051116681112,
          -0.039332564364739836,
          0.08775950988713534,
          -0.23712260848148087,
          -0.07420152724903539,
          0.13429683593284025,
          0.15239538545589162,
          -0.012049754268417,
          0.09089851688430857,
          -0.15115836167724134,
          0.15236087149356028,
          -0.17377457438220067,
          0.056369622503504906,
          -0.08005828225548908,
          0.17399875637621,
          -0.22474090050952583,
          0.1764384510744845,
          -0.08192030656313802,
          0.006117544359921861,
          -0.10218684150529443,
          0.09790395313213626,
          -0.12287420966093451,
          -0.10262107882604053,
          0.12846363558162938,
          -0.032390241764992105,
          0.02751921986597882,
          0.12934492823210736,
          0.10738047737487003
        ],
        [
          -0.12808323671954155,
          0.11759745481981602,
          0.14547170299671833,
          0.13013634145518335,
          0.10046964463227293,
          0.1124382734070424,
          0.02323993593346595,
          -0.2553844791089687,
          0.013175886038684217,
          0.0005439207088541033,
          -0.06241916368741917,
          0.14348403345120075,
          0.19332642418405352,
          -0.031006802827640796,
          0.10813462480688849,
          -0.1424303193756426,
          -0.06344497870920957,
          -0.005829757426072499,
          -0.06090615786807563,
          -0.15099469201420374,
          -0.054732684042984224,
          0.030611530410877316,
          -0.1304828267083983,
          0.03614627752225537,
          0.00169083677207541,
          0.14550316637005944,
          -0.030434388769103787,
          0.07096527593787673,
          -0.17512499700212905,
          -0.20516798788324395,
          0.1550211325023708,
          0.10275761797281989
        ],
        [
          0.029967894280295816,
          -0.010992784592694666,
          -0.1928178544056204,
          0.07327978670841705,
          -0.10110314402617787,
          -0.023889607430866135,
          0.11887179610186177,
          0.003961296758488097,
          -0.13272321093677172,
          0.014779235937193798,
          0.08635578047841538,
          -0.006918536054392215,
          0.14682068994666195,
          -0.17164210712312128,
          0.007961906850115698,
          0.12168770904362099,
          0.0689240752255937,
          0.12183684011658892,
          0.12481469065883258,
          -0.16682599459222994,
          0.04057921407169186,
          0.1331000024118014,
          -0.0405461735638898,
          -0.1747842728745818,
          0.01947832986495243,
          -0.12342011651778181,
          0.009192598418777745,
          0.10944028583474166,
          -0.11305772817426157,
          -0.00966819120589042,
          -0.07123806731772941,
          0.06697774848549254
        ],
        [
          0.13236554110756135,
          0.06259098791508193,
          -0.1495228397771454,
          -0.07112401785397465,
          -0.08708374510220557,
          -0.024205122980060147,
          -0.04324369527051852,
          -0.134018017865492,
          -0.0372182953317464,
          0.06974419433028535,
          -0.061411009139349694,
          -0.0156876636602496,
          0.1492036012083533,
          0.11329702020249614,
          0.025505688521625918,
          0.07168919132122006,
          0.08468700046196115,
          0.05729147410574355,
          0.016440442693487007,
          -0.14413838811301044,
          -0.11377669061250943,
          -0.10125143404866511,
          -0.029600945865999286,
          -0.19616275105409473,
          0.22166689392722683,
          0.04947857919193596,
          -0.037364194931595145,
          0.1617401047756514,
          -0.09926222792798574,
          -0.09735223554713683,
          -0.08919697163209339,
          -0.017029490452820546
        ],
        [
          0.02811080450274219,
          -0.04852228190945592,
          0.15299313228043762,
          -0.14761700376677372,
          -0.015342946607394223,
          -0.06891363734794818,
          0.02376688049972004,
          -0.046768110708383846,
          0.1575434654857127,
          -0.05118284020525141,
          0.1207440980293797,
          0.13138963556018607,
          -0.01748933313623475,
          0.1690030096805406,
          0.04239682219502128,
          0.17869998186300431,
          0.06966087260157416,
          0.1775675904949406,
          -0.13379111651399375,
          -0.2126596920110923,
          0.02759264267722545,
          -0.0416909753194581,
          -0.12088420116516736,
          0.1711870390612558,
          -0.0456271348274265,
          -0.07472311575740455,
          0.17083563957001735,
          0.07984598079065945,
          -0.10839277079699783,
          -0.15303493074960098,
          -0.0893864508971242,
          0.006536373836265766
        ],
        [
          0.04594273917030803,
          0.19451585342201747,
          0.06355362344246067,
          0.003958263437110599,
          -0.21414428755079792,
          -0.15093515915422373,
          -0.15489516807518877,
          -0.2105090610679434,
          0.030733771944576372,
          -0.03964344275435547,
          -0.1449425269496317,
          0.04185940682227652,
          -0.06063274673032941,
          -0.1626056992018431,
          0.15335980324680232,
          0.10932057593307902,
          -0.10557549981002934,
          -0.10318257262363284,
          0.17721686016075106,
          0.12340907946578913,
          -0.19336062788851163,
          0.08390209327214448,
          0.11350405561002672,
          -0.18828756086158324,
          -0.14038787338488995,
          0.01710131956382382,
          -0.10402892430491648,
          0.15714674378126217,
          -0.13190218460810682,
          0.07656895980755922,
          -0.04454056879480186,
          0.14956038291618323
        ],
        [
          -0.1524613983792726,
          -0.06128714610046097,
          0.08901947780763655,
          -0.15067780694938812,
          -0.1574421205591233,
          0.21945061580970138,
          -0.04238419492158201,
          -0.13654802209847042,
          -0.003459636132643299,
          0.19324544046798534,
          0.023205246848660897,
          -0.022726291325938244,
          0.15785854599596463,
          -0.06812819380077537,
          0.09445369751450734,
          -0.09797753046039005,
          0.03821286188796195,
          -0.1373100938936273,
          -0.17620418601948276,
          -0.20122223976446876,
          -0.09324525367473178,
          -0.05358881702574579,
          -0.11038713842164424,
          0.14446773149978073,
          -0.08616173552978132,
          0.14334467204849463,
          -0.1449414771463333,
          0.01567330290351342,
          -0.14039948873787522,
          0.12339038838252772,
          -0.005006814789309646,
          -0.026710620576473696
        ],
        [
          -0.19862755025788875,
          -0.013496120892708668,
          0.12177024208119004,
          0.010623408147820541,
          -0.09315859936162726,
          -0.10065702987124078,
          -0.16677427588293145,
          0.013683861532617069,
          0.09076111051858471,
          -0.08909218783215242,
          0.13658818711319304,
          0.028337006223943122,
          -0.032446854305627416,
          -0.06850804233197114,
          0.0736888379115634,
          -0.09041290691354746,
          0.14782137231479234,
          0.15996237184851078,
          -0.1558178353594747,
          0.05931744780778025,
          -0.1010118650581012,
          0.11646525098859613,
          0.05584544107726565,
          -0.09308911980132896,
          0.1549250625871628,
          0.2059864347064991,
          0.06305255896232177,
          0.02313138872276192,
          0.02889949572770194,
          -0.04489148934875134,
          -0.09730212170882391,
          0.03526978268589942
        ],
        [
          0.09358769701106895,
          -0.03117152410799918,
          -0.15792197482778184,
          0.05977954607103788,
          0.004863329188265562,
          0.04190798314034077,
          -0.0188467501743261,
          -0.05700712961206075,
          0.14186612741452959,
          0.016123456345745253,
          0.06815970274376959,
          -0.07923609837849523,
          0.01915069427478809,
          0.055095414497310105,
          0.30732238374377174,
          -0.1625567457296489,
          0.04127890163231896,
          0.02293502823503929,
          0.09953297563716475,
          -0.16714333521076466,
          -0.02152009882088428,
          0.18283797517793868,
          0.01086260200512483,
          -0.10820081681021468,
          -0.16725753001031793,
          0.14324158801713158,
          -0.12616163163174615,
          -0.011343713343512574,
          0.1352822616815484,
          -3.4216316146734896e-05,
          -0.023076331502322484,
          0.12915832754318451
        ],
        [
          0.014902705015025365,
          -0.17263870724377764,
          -0.023809032505678552,
          0.06390277623468062,
          -0.09850590454082173,
          0.15775046169198567,
          0.18123995373488144,
          0.019086867693237246,
          0.07381826879506166,
          -0.008364270543838037,
          -0.053746957933838005,
          0.16887722363798302,
          0.04329894883237208,
          0.039498179045098926,
          0.2843491022589507,
          -0.044807093469231216,
          -0.096975107554103,
          0.08419361136281553,
          -0.02398515007169272,
          -0.1350823035232301,
          0.16028588609711952,
          0.020808007326841977,
          -0.16906462902771535,
          -0.04862686600521207,
          -0.024181922070180658,
          -0.0805702378924697,
          0.08120385975711915,
          0.13461110963657502,
          -0.015665559671659578,
          0.03240673476697528,
          -0.06692157649125957,
          0.07201479795693455
        ],
        [
          -0.0337090142294795,
          0.00214143091530586,
          0.10514124949125997,
          -0.04688806590017595,
          -0.06405177921644566,
          -0.13814082884552797,
          -0.009728557381614135,
          0.004493036766699054,
          0.008451942774474284,
          0.10307485395454898,
          -0.08607139330385949,
          -0.11301774683450491,
          0.03198064527717876,
          0.04543141714157927,
          0.14452440641572517,
          -0.030818967485882216,
          -0.00014761720828568824,
          0.060054475727357615,
          -0.0741162712979219,
          -0.09433083907896543,
          -0.07618755442435993,
          0.1611607617430434,
          -0.029552577207526094,
          -0.16312264353877212,
          0.1801912552385163,
          -0.0713442292796893,
          0.1522134764091892,
          -0.044723951743195725,
          0.02338217995610303,
          0.0547583250905176,
          0.15639726268388535,
          -0.09550731363027075
        ],
        [
          -0.04901730487841283,
          -0.038605849245360514,
          0.06261401507087105,
          -0.012023809992537294,
          -0.1780301530089567,
          0.0452491593997838,
          -0.0011037731002897981,
          -0.008294696637571493,
          0.0758680420791012,
          -0.12859305395300738,
          0.1325501007092294,
          -0.1256845885290709,
          -0.13724289392167435,
          -0.09159584799902619,
          0.17123188861939817,
          -0.09703590489658827,
          -0.045051714674636416,
          0.04292088125079646,
          -0.08491002375395842,
          0.10157577233652557,
          -0.22032690734585603,
          0.21419329018476163,
          0.007776191510092003,
          -0.0990693498663294,
          0.059958994262358185,
          -0.09184862529042874,
          0.160166577881195,
          -0.14274493106143069,
          -0.15501474569545953,
          0.10105383412255238,
          0.08640250709202126,
          0.018437101901397007
        ],
        [
          0.1347262635482874,
          -0.030597549488373926,
          0.13565172587413202,
          -0.04492539621613384,
          -0.222267904623387,
          -0.058778600049958905,
          -0.025382983510537468,
          0.051175044969964986,
          -0.09114817818586056,
          0.045836137039723814,
          0.01988912796561936,
          0.19447835944932856,
          0.11163151591720498,
          -0.16471176218759542,
          0.1482363770943871,
          -0.16005788890271258,
          -0.0033309893536837406,
          -0.1624367762875038,
          0.15609292580509657,
          -0.18617808018195445,
          0.15590244813318352,
          -0.01598769462749191,
          -0.16147788019568127,
          -0.15739667801025597,
          0.07294346731443256,
          -0.10955974640792794,
          0.13148023992404861,
          0.20366695771339724,
          0.058062447979974015,
          -0.07116234671564488,
          -0.08909294745198137,
          0.11070556807037922
        ],
        [
          -0.023483345308292644,
          0.07783510401492941,
          -0.11907888349645009,
          -0.03741713128485603,
          -0.12563169587168074,
          -0.07496750616958117,
          -0.12743564212664169,
          -0.055769816734761286,
          -0.1005256557186107,
          0.14850442847453935,
          -0.0013173831848516514,
          -0.10670403591411559,
          -0.057197369094761974,
          0.16022063464135672,
          0.10009992460737098,
          0.10260837600146076,
          -0.014713216058428175,
          -0.05359931537995848,
          0.14079784090462893,
          -0.17082853463025247,
          0.05370510894863553,
          -0.13296697118075843,
          0.1798132585350309,
          -0.005939304770932085,
          0.1328825844602907,
          -0.10156652505924596,
          0.04335598241785477,
          0.029268676133116213,
          -0.1623389240032791,
          -0.03413167839237484,
          0.14122806589066336,
          0.07993106758800665
        ],
        [
          -0.0782192860857007,
          0.08551999137762985,
          -0.12229896353304541,
          -0.013623202140790158,
          -0.1864306328142862,
          -0.15104367299302118,
          0.0903247670257451,
          -0.03627590883683331,
          -0.07107800149155254,
          -0.08434174138351105,
          -0.1561057016387067,
          0.008622748064705397,
          0.1450577569104326,
          0.03436544652249003,
          -0.016175184027103953,
          0.041947486058598035,
          0.08668568781054944,
          0.06059334726027569,
          0.11037906448770435,
          0.05902964997113421,
          0.09413323875647621,
          -0.08696151426811612,
          0.004862447160697211,
          -0.1719754640461736,
          -0.09616574779287701,
          0.004575456629213678,
          0.16540905351483076,
          -0.03135499303627254,
          0.13975940416410554,
          -0.20354049150437184,
          -0.12319796692824578,
          0.12908802583534046
        ],
        [
          0.17262201860531914,
          -0.02802623214381667,
          0.11791787675025509,
          0.15886058859979565,
          -0.08060743004223911,
          -0.10385718606457099,
          -0.1173098228414384,
          0.10280988818646755,
          0.0223988245133386,
          0.1006918687086538,
          -0.061425816024634296,
          -0.04410533103334253,
          -0.034354402578494425,
          -0.11710104684311048,
          0.18823893343618237,
          -0.15951595061830504,
          0.07875992820702804,
          0.03247534810815423,
          0.004375030959783336,
          -0.10792557330500527,
          0.10858884720549307,
          0.1346902656751927,
          -0.10418892888081978,
          0.13572194100993656,
          0.026350231879870054,
          0.23687913013314157,
          -0.1548987764483251,
          0.11940172813381157,
          0.10517865723955674,
          0.16589636908902666,
          -0.15518298285343216,
          -0.04592700430500543
        ],
        [
          0.14602154180932855,
          -0.07926293189286679,
          0.04508169378748428,
          0.10087637778313013,
          -0.08687410504470797,
          -0.012903345187114374,
          0.04898322531291037,
          -0.1025768104078477,
          0.005573790147063861,
          0.04025502125582528,
          -0.05703110144474685,
          0.16033909789015022,
          -0.06894102316287001,
          -0.09511249706995624,
          0.06551765371192833,
          0.1589186102947676,
          0.11666059188928661,
          0.17578739604325144,
          -0.08252549285113886,
          -0.10009729730363073,
          -0.003939582233345173,
          -0.012654327647151178,
          -0.019149772649227372,
          -0.12238834165161153,
          -0.16360830378413682,
          0.11553551181234667,
          0.046559291578816615,
          -0.04335490176307821,
          -0.11407066860153148,
          0.14004359612955877,
          0.1552889356529118,
          0.13709540480494725
        ],
        [
          0.032016422181979406,
          -0.03376757122260213,
          0.10514281399179426,
          0.015925331515809805,
          -0.01623548956180731,
          0.05472310967627536,
          0.1405947620458265,
          -0.07479031687283705,
          -0.0148106548414772,
          0.09299642828584104,
          -0.15363741050121743,
          -0.14698440237659677,
          -0.12073606824330277,
          0.09926984715507309,
          0.030142606112855408,
          0.007832559090053055,
          0.06483688512127164,
          0.15790048174084811,
          -0.17759201041539166,
          -0.060569575716593396,
          0.06009833253667769,
          -0.16068861463860248,
          0.1668854755689815,
          0.18906591440163803,
          0.0663823231524387,
          -0.09418140283002663,
          -0.171148466085075,
          0.16930910518592002,
          -0.1445055539533106,
          -0.15530349995048146,
          -0.04335659181610734,
          -0.01158251779501979
        ],
        [
          0.0003445467360574026,
          0.07339453877522323,
          0.1028718497414623,
          0.02436814141591023,
          -0.14068005457317292,
          0.09622561937349497,
          0.09447567247779233,
          0.060884317128610484,
          -0.08487883526742034,
          -0.016077755982534525,
          -0.048670839876333964,
          0.16948013279563123,
          0.05604005860992883,
          -0.025988991828265865,
          0.20150264658590422,
          -0.13048086390043165,
          -0.02224933135846516,
          -0.12548145978591874,
          0.14671277779531294,
          -0.02920880124039957,
          -0.048278442883350585,
          -0.0102236698849218,
          -0.19523316972058918,
          0.16199999269321147,
          0.12616559986792664,
          -0.0683127800732156,
          0.10149880773198384,
          -0.04130929681826128,
          -0.05725418052215011,
          -0.012771577694874652,
          -0.019977634718392312,
          0.10675572566899721
        ],
        [
          0.2098104787940358,
          -0.03349724653185026,
          0.13226382631807898,
          -0.05443922684119984,
          -0.01224105728816941,
          0.1913358726180904,
          0.029225303564965624,
          0.035578539519653146,
          0.051795417629726594,
          -0.013570324249286714,
          -0.05393072354913969,
          -0.11902823046775483,
          -0.01638938570790561,
          -0.004540452229480976,
          0.036868649399912905,
          -0.1589362103676722,
          0.16378617274594692,
          0.023105169499674002,
          -0.06043157939529489,
          -0.06440443395124343,
          0.1308756274565721,
          -0.0016704954068876507,
          0.0390575823257672,
          -0.10776059150067004,
          -0.0342703175022289,
          -0.07445174234597314,
          0.1339195687255915,
          -0.03645122844804285,
          0.05094038169376789,
          0.15442573441474167,
          -0.06694472717731072,
          0.12037841049185607
        ],
        [
          -0.12064192744784569,
          -0.0036488338134749573,
          -0.17640174250172688,
          0.028608778852991398,
          0.062141689685754085,
          0.02663133521749764,
          -0.011460164967728795,
          -0.04911106750945661,
          0.17159240418479033,
          -0.10994743780743292,
          0.06934399245461231,
          -0.022894056500518917,
          0.053049548927953195,
          0.13141513483521872,
          0.11167907384679182,
          0.1361252190886428,
          -0.013711472088834218,
          -0.012831958472279423,
          -0.18979986808830906,
          0.04867870188840083,
          -0.01848825241668292,
          0.19834734695193332,
          0.15304075418614618,
          -0.14991388375029377,
          -0.022458404763468588,
          -0.014248595715582364,
          0.15420721033192902,
          0.1490056387453686,
          0.12699427210702663,
          0.04934640687956366,
          -0.1405761113214124,
          -0.12768124913128032
        ],
        [
          -0.03947726970274446,
          -0.005942283848480651,
          0.03963307401073982,
          0.16917343506209326,
          -0.04538911182507094,
          -0.12694659356196228,
          0.1894599632983411,
          -0.030419431050381484,
          -0.17585450067926683,
          0.1588422069116016,
          -0.06735119399609285,
          -0.09617504487294168,
          -0.06775488342534824,
          -0.16546672897314302,
          0.19868625542411875,
          -0.10949666486405656,
          0.18674778947976509,
          -0.1169689633070735,
          0.09842795315194179,
          -0.01781663693720205,
          -0.1577746745783928,
          -0.14359117363057833,
          -0.11798870111213217,
          -0.1065105719864711,
          0.10847479112871786,
          0.12639664355705313,
          0.000970903822757169,
          -0.12514836088029618,
          -0.1764606529106008,
          -0.16180361744630134,
          0.16165672596441097,
          0.024656516017389083
        ],
        [
          0.007837085693345668,
          0.16753269123676207,
          -0.173015792375894,
          0.12201735139045677,
          -0.17673890184800867,
          0.08531353089590847,
          0.04349694960455566,
          0.03402417943796985,
          0.06585937307608927,
          0.07074762031819119,
          0.029216314135394463,
          -0.14889527819841397,
          -0.139559557387311,
          0.11285453626210394,
          0.18245586557297383,
          -0.1404040760810376,
          0.04402158126580169,
          -0.12810675041309785,
          0.042779576121965174,
          0.09986436581072775,
          -0.1670365492882529,
          0.09659060641504702,
          0.13131401156960787,
          -0.024490074656963456,
          -0.03622531055858536,
          0.021455954800221524,
          -0.015367767171972515,
          0.022958825011512782,
          0.005985099880668844,
          -0.11777782511836166,
          0.024191312126277596,
          0.013898317884004169
        ],
        [
          0.05677715842383173,
          0.02309608734483519,
          -0.08256325654699381,
          0.020860034760143475,
          0.11052285675844543,
          -0.23751855226610638,
          -0.061007448499026284,
          -0.06456544062887061,
          0.09015212665294325,
          0.053114663005537834,
          0.02933566808256021,
          0.0027661119297707213,
          0.009644833988451047,
          0.10356710585307945,
          0.23618010154133043,
          -0.13933246955923093,
          0.14132984660901948,
          -0.13924894567462814,
          -0.020845908332781323,
          -0.12871699079987142,
          0.12068671630975682,
          -0.013800351794979352,
          -0.0455331573031538,
          -0.18055911722989712,
          0.037772460794224486,
          0.10849203284352248,
          -0.024079684579703834,
          -0.10547318687281385,
          -0.11549405588663508,
          0.15396920181458268,
          0.07315644930044392,
          0.061003736576931485
        ],
        [
          -0.06623101603956104,
          0.1653845929764133,
          -0.05713659181213254,
          0.15811459679743056,
          -0.15576625861770663,
          -0.045981064246935446,
          -0.07872358569354108,
          -0.0457586727030683,
          -0.09033361465674349,
          -0.07597263469326895,
          -0.15636720256160092,
          0.16820497122977587,
          0.1327211912034752,
          0.07503242949212365,
          0.09626164240123593,
          0.048439641397847004,
          0.1159044332922234,
          0.14642184243880696,
          -0.17210476521999357,
          -0.10393464025236131,
          0.16921623210886966,
          0.07343396921284433,
          -0.035498707940789194,
          -0.03669298889352374,
          0.06985581481397915,
          0.21643394256156137,
          0.01554124947183277,
          -0.014426026676100013,
          -0.0013011976560098708,
          0.13457145067876308,
          0.03153902281146474,
          0.022477997620356325
        ],
        [
          -0.047566740378231054,
          0.1848965008088929,
          -0.13350135869708413,
          -0.12736308128194657,
          -0.07656711375956676,
          -0.07822268280887706,
          -0.02646186619129035,
          0.1358839606827898,
          0.14896200152851702,
          -0.0979006738566721,
          0.05146550619753677,
          -0.11722553535150605,
          0.11061203610111534,
          0.07365007548216596,
          0.05090213152090365,
          -0.019837837961688396,
          -0.04421990269886626,
          -0.18759636940561666,
          -0.0024231631445497093,
          -0.24762046095195606,
          -0.1608412785775397,
          -0.14862553616095062,
          0.011533238017396764,
          0.0822037507092816,
          -0.02391629542556899,
          0.1421733482642852,
          -0.04374114805623274,
          0.04419617799265482,
          -0.13626321852568027,
          -0.18431612705466902,
          -0.10305779715214798,
          0.008531643232410624
        ],
        [
          -0.0023015322795293816,
          -0.1712998998422877,
          -0.09035658181297537,
          0.06838918682423319,
          0.0271198656441768,
          0.11740409974268082,
          -0.069461653362726,
          -0.01927997125318375,
          0.14755654586206696,
          -0.04852305182655453,
          -0.10426612583821951,
          -0.04990515747071012,
          0.010994429734806873,
          0.1070719413444918,
          0.11549493998408855,
          -0.20004124334891746,
          -0.06922334425024289,
          0.1595674407679994,
          0.039784807094610804,
          0.0026885108828915345,
          0.15816181192776127,
          -0.008524348677355338,
          0.025183541232972197,
          -0.056358964508527155,
          0.20811931631855238,
          -0.07121739974350584,
          -0.1511700114695396,
          0.20998356011942756,
          -0.1303681129454528,
          0.13243094728014929,
          -0.09247450220660676,
          0.0006774575624103046
        ],
        [
          0.03910693208142865,
          0.03356016516124954,
          0.11737203779078378,
          0.27988450139806725,
          -0.030525247630271982,
          0.15250958626587957,
          0.15248208153717985,
          -0.07027226615626128,
          -0.1552411468153641,
          0.0026230865557044358,
          -0.07113229636818255,
          -0.167575912280837,
          0.058853060787821626,
          0.13996915097960952,
          0.04185109742485017,
          0.014775676635333433,
          -0.028797144120276588,
          0.06589144944467863,
          0.021949395417990045,
          0.05909426120716919,
          -0.028864131961489,
          0.0524674418852915,
          -0.017368762461752302,
          0.0938464162782177,
          0.18484780026584025,
          0.059775918351136235,
          0.06476824359043684,
          0.010674566331783451,
          -0.0749158076641017,
          -0.1588454820594564,
          -0.0558185051115879,
          0.03320496328758692
        ],
        [
          -0.07235039304080795,
          -0.016337758470443255,
          0.06412230403727441,
          -0.08413534041883082,
          -0.0638630407593188,
          -0.09111694724621001,
          -0.10036502929859048,
          0.006404850831053084,
          -0.0789693973358632,
          0.16173926171555356,
          0.09478812564774801,
          0.21411992343026223,
          0.04527084210439065,
          0.02632400967603704,
          0.08371977434556128,
          0.15789275525297103,
          -0.12330310342376444,
          -0.1316373203569218,
          -0.005141078247408739,
          -0.12403471286935763,
          0.169071507822804,
          0.06204901889933779,
          0.027596791978332567,
          -0.14566461603535744,
          0.05755621141638271,
          -0.1889860926209909,
          0.11636377379876055,
          -0.049613073868923406,
          0.08417024625575249,
          -0.09355757060947792,
          -0.07103912890668848,
          -0.0885391638042572
        ],
        [
          0.12734643731332607,
          -0.0636067731523305,
          -0.007733855865585385,
          0.05077216808224894,
          0.0481730553321576,
          -0.15735568691172702,
          -0.13455866044117926,
          0.042685188736041046,
          -0.12092051482312612,
          0.10437299591797201,
          0.04955620256743094,
          -0.19309073132765084,
          -0.15757645234528955,
          -0.17459373081006807,
          0.0012421319677916908,
          0.004185423611091545,
          0.004308622951394539,
          -0.1603552525929534,
          0.05202111379371496,
          -0.15831919645282702,
          -0.09478668048355174,
          0.15812072134366204,
          -0.15707490937152485,
          -0.07943198062783173,
          0.05479210246048091,
          -0.02945718211580505,
          0.015400919509174903,
          0.01894664847077223,
          -0.02468231610610145,
          -0.010456371802034785,
          0.16539906683804065,
          0.17316871580353954
        ],
        [
          0.03321653161835626,
          -0.054992256900097014,
          -0.13566746892633652,
          0.05026689511260332,
          -0.028253017788952152,
          0.02771146931308995,
          -0.028579062578779266,
          -0.048069441422105376,
          -0.06824751680870171,
          -0.05196441079817002,
          -0.12334868401893458,
          0.11895281377015078,
          -0.05216917905481007,
          -0.17022172977783842,
          0.028458436449529476,
          -0.12390185963362098,
          0.0280111915194884,
          -0.09654067358272012,
          -0.02746891790372977,
          -0.10535307222547399,
          -0.12765503498942563,
          0.11086103585134113,
          -0.19309103705773228,
          -0.016343726767661278,
          -0.023671516458260374,
          0.04162950018890788,
          -0.17070691399290952,
          -0.027786644034560576,
          0.09202002169932944,
          0.07683626651064099,
          0.0705638414378571,
          -0.1063918856743587
        ],
        [
          0.02076029246967989,
          -0.04842125044145325,
          -0.24672666117545933,
          -0.021287786625548324,
          -0.06386972583459562,
          0.06614702122960182,
          -0.1517612176291903,
          -0.03826121348976817,
          0.03629186098984382,
          -0.03393274433591246,
          0.10304561913660433,
          -0.05062845324296727,
          -0.15397333508809655,
          0.08730180798316645,
          -0.1027047924485255,
          -0.0767699152101914,
          0.10887537947452877,
          0.06284949953263021,
          0.021196011232539093,
          -0.12567252173463017,
          0.2164180644633491,
          -0.15637253108707502,
          0.05388621333100583,
          -0.017754034304492912,
          -0.0381118752983594,
          -0.13876966788748107,
          -0.029346868552879744,
          0.0402484497292577,
          -0.20818023256100845,
          0.010650575659354579,
          -0.10088047996279283,
          0.09725374658661069
        ],
        [
          -0.16115795532891478,
          0.14033476599158118,
          -0.16272902355593108,
          0.16879739799296906,
          -0.03972605625376589,
          0.005073797005301523,
          0.23612164508222264,
          0.09064379864704397,
          0.04582871069962387,
          0.09642510155495244,
          0.15046165383096696,
          -0.13002453106039416,
          -0.07539589828542413,
          -0.17460302393417504,
          0.041771494122825145,
          0.07815772545602975,
          0.07429450458505836,
          -0.09759611550875852,
          0.08709217266231015,
          -0.03350654598926477,
          0.08402373687679582,
          -0.046698235986065,
          0.14936404371357073,
          -0.1628634847179151,
          0.005025739208622857,
          -0.0016827880668087369,
          -0.1539540388569368,
          0.10619353659277751,
          0.015074141492829627,
          -0.213332689718939,
          0.0241667809392626,
          0.07373424309858591
        ],
        [
          0.060181779031542586,
          -0.1893856592827045,
          -0.0808491370060619,
          -0.1589016332316385,
          0.0006686047405884788,
          -0.04300013103353462,
          -0.17412491844547337,
          0.12419840229971223,
          -0.11807607385837529,
          0.13537553134450583,
          0.14966361028787697,
          0.20359222891125534,
          -0.024959008407783815,
          0.1707938172663572,
          0.15293916453819176,
          -0.01979203614471547,
          0.028507233160303125,
          -0.1579544936422319,
          0.14684377761677098,
          -0.12727216041229727,
          0.161631262939924,
          -0.15678011688438612,
          -0.12718275995100614,
          0.08649567901737723,
          -0.10634964037806784,
          0.14520390017613585,
          0.002861887223324854,
          0.0023691186320344278,
          -0.19483517306660703,
          0.07671404561322519,
          -0.14422527146804764,
          0.03692919877921547
        ],
        [
          -0.07059017382905983,
          0.09428645221230558,
          0.11246506287714106,
          -0.014488913604580022,
          0.1605164857107122,
          -0.12117160610844716,
          0.10944545079608238,
          -0.06860197976435901,
          -0.10469941080793374,
          0.022526200314206175,
          0.07536384929955971,
          -0.09400280762623558,
          -0.1797102457338362,
          0.0451928103406064,
          0.06310334498242623,
          0.07481081438515137,
          0.01638493192827287,
          0.04375037709749121,
          0.08186989964356316,
          -0.04928334267659924,
          0.0031706221919778907,
          -0.019444704579658526,
          0.14126463790184843,
          0.019531372438413422,
          -0.18657702247451027,
          -0.13591587255139076,
          -0.15319661524959624,
          0.1731395153149431,
          -0.12066137438279499,
          -0.029150878881172796,
          -0.021291400072996663,
          0.09401343643604917
        ],
        [
          0.12473839747572323,
          -0.18258771431942586,
          -0.05052385162959695,
          -0.14017456301187617,
          -0.17769635280894677,
          -0.0715414476165055,
          -0.1238806043527926,
          0.1887332802179082,
          0.15773966277882023,
          0.1659566409445508,
          0.026222516663750948,
          -0.13082633673218008,
          0.043045207816625235,
          -0.10608157635431827,
          0.2289476150958409,
          0.14859029737430454,
          -0.09295424787901745,
          0.07550550233438734,
          0.052212923636213444,
          -0.11889227314226204,
          -0.0792548823135455,
          -0.11864778497913196,
          0.08337416710732312,
          -0.15210770409603533,
          -0.039960559194312975,
          0.10627093433490944,
          -0.20569713677748905,
          0.005118182158837575,
          -0.12918613501179507,
          -0.139346679231707,
          0.018739034054944387,
          0.05568887860514922
        ],
        [
          0.0011625415728753563,
          0.06280782116178503,
          -0.14826934230045086,
          0.026725417725134495,
          0.03257806347175882,
          -0.1527576719935575,
          -0.15427249938460033,
          -0.04594186803043124,
          0.11782214651272442,
          -0.0998144320906659,
          0.11240196622786364,
          0.052247917518721584,
          -0.1083067414206469,
          -0.002442582018517157,
          0.06994938516640184,
          -0.1779591298099212,
          0.18604028372847356,
          -0.06482498577785203,
          -0.10983555088612187,
          0.00022307365862654936,
          0.05131687938717905,
          0.04605905979321857,
          -0.17519298834049524,
          0.12069394118419136,
          0.029629136013374732,
          -0.07803166635700423,
          -7.724453679560766e-05,
          -0.13709219940183276,
          0.1109475036089702,
          -0.050212966002487446,
          0.059720531008193335,
          0.03519239629446543
        ],
        [
          -0.060282571358075084,
          -0.0023036027454115347,
          0.020889657381697582,
          0.014928840050573579,
          0.12243218117617409,
          -0.15985136838467387,
          0.019656973637577516,
          0.035123652839563924,
          -0.11805947941285724,
          -0.1297636633554949,
          0.06319732939388822,
          0.02946236576470405,
          -0.003044949931284642,
          -0.12084139263243118,
          -0.013673460281087284,
          0.03819424167505189,
          0.11755918471356203,
          -0.02400265157044094,
          -0.038436322365708514,
          -0.08819524644190162,
          0.12544307875069832,
          0.16949615491039893,
          0.15816518608041766,
          0.08314184404877886,
          -0.156219477502929,
          0.020213001207324187,
          0.07965447527220894,
          0.1199224336482932,
          -0.18256663343542948,
          -0.10546823792912276,
          -0.10517425108479739,
          0.07634577611155895
        ],
        [
          0.04784777361468065,
          0.07247463637033318,
          0.08562388545080034,
          0.1442667009725717,
          0.09509317262938524,
          -0.10458191680748663,
          -0.021827115340291643,
          0.1653553480895209,
          0.04842489833098245,
          0.06682941865764393,
          0.1346481578767861,
          -0.10173696383451626,
          -0.10455316667551971,
          -0.14206526348749005,
          0.10557858583954503,
          0.14596501815455712,
          0.01630785983128299,
          0.01258064545613759,
          0.12450632567702226,
          -0.16997415125607318,
          0.07754943577146999,
          0.16840825731142084,
          -0.18900890567037074,
          0.13138099781189558,
          -0.020835798690886954,
          -0.14724742356185475,
          -0.04366842114442539,
          -0.19452841903837623,
          0.07023280265255032,
          -0.037475740803517045,
          -0.15820782112318946,
          0.035369579231046736
        ],
        [
          -0.17931328368423557,
          -0.11125603042982901,
          -0.15204799003934377,
          0.039107325934294765,
          -0.06780679474425252,
          0.19168171886957405,
          0.16593433284113102,
          0.0867092831772818,
          0.10525033991268416,
          0.007769663363206678,
          0.023205544428975572,
          -0.023628180801616227,
          0.04111712856897362,
          -0.05323169664211077,
          0.15671162742700084,
          0.06417983708371514,
          0.1628778474508849,
          -0.175676825574649,
          -0.11475874960974994,
          -0.12836685240531595,
          0.057878151867466913,
          -0.04029683866385011,
          -0.007922684108835964,
          -0.008294781674450316,
          0.017094124903939186,
          -0.08681348506928598,
          -0.017092436125584427,
          -0.15974683399843653,
          -0.1947153419617841,
          0.052963807169948585,
          0.002323174679901904,
          0.01903707337898828
        ],
        [
          0.07188111668946225,
          0.10521994028746158,
          -0.052760329939496774,
          0.08474752200616,
          -0.014312029187535592,
          0.0698587177820096,
          0.10149082045172894,
          0.053492262492264964,
          -0.000559514068129212,
          -0.006731981040460308,
          0.13812540362247758,
          -0.1330849027437593,
          -0.21220514391076736,
          0.02783379239893625,
          0.09889543581329871,
          -0.19679711723731608,
          0.11935736229109412,
          -0.014892081135506417,
          0.12263632328469942,
          -0.09343397668575633,
          -0.17721657590545725,
          0.17719191472091306,
          0.06476338404881878,
          -0.09575783891952748,
          0.10712728429316963,
          -0.19515118229843473,
          -0.06766465126432071,
          0.05133734865525623,
          0.08569956621650052,
          0.11583934696961005,
          0.17497941977519577,
          -0.1688424475003534
        ],
        [
          -0.0026985435092145645,
          0.14484098323034317,
          0.0954352781252285,
          -0.04223477764662571,
          -0.13334388855906373,
          -0.06373936154729978,
          0.1994574993210337,
          0.14191693610269457,
          -0.17627111380245555,
          0.021105010069613732,
          0.14578876125644816,
          0.04898322183329545,
          -0.11627754795160641,
          -0.18805573943183249,
          0.09543590724932594,
          -0.05592545665541228,
          0.18075383105470133,
          -0.09424245593628716,
          -0.0704285468309246,
          -0.06628020271387079,
          0.12355511628455206,
          -0.16566207868241148,
          0.13985782751128717,
          -0.10099822364087782,
          -0.10831141755805708,
          -0.029709175007117367,
          -0.1301817381830223,
          -0.04210748289042659,
          0.08295724951248375,
          -0.03403328505018268,
          -0.05575607353857535,
          -0.06488903848049932
        ],
        [
          -0.1282007103874464,
          -0.023106850034961865,
          -0.04576512163083308,
          0.16069253335038267,
          -0.01876129335665471,
          -0.05707652010208021,
          0.08805046257027428,
          0.09944344648268003,
          -0.0393944461250021,
          -0.14868774214540129,
          0.15002311743861924,
          0.08170314107057948,
          0.06990899607852809,
          -0.015273588464024102,
          -0.035173530233105293,
          0.10380851639670918,
          0.05593355161366628,
          0.06118956635915913,
          0.08602365370546114,
          -0.1591039037983408,
          -0.16207252121656168,
          0.039981842615326293,
          0.07553329186353751,
          0.10519773233584476,
          0.15695012289710392,
          -0.10180242660309508,
          0.027553106700298736,
          0.02595252797526776,
          -0.144858997530322,
          -0.0581596680652464,
          -0.0019123923285908923,
          -0.010139896442701206
        ],
        [
          0.06029040429220167,
          -0.028141251658575537,
          0.09885746450313775,
          0.057369533503470176,
          0.1670672221713753,
          0.11020599468336958,
          0.06464614378305847,
          0.19405653985525745,
          -0.04742659803215429,
          0.01712193767237748,
          0.13048922410916652,
          -0.08959450223961521,
          0.11935957843992202,
          -0.004025527489338339,
          0.09017527216873157,
          -0.11103384353532857,
          0.009439682263435872,
          0.15257549130119769,
          -0.0913359457817385,
          -0.16139046411168245,
          -0.17971425267225347,
          0.04629165839067235,
          -0.05278003395022028,
          0.15705348539597283,
          0.16973949296024488,
          0.09845829737858243,
          -0.1988146622987202,
          0.010457608730691735,
          0.06254567031528963,
          -0.16913297683436984,
          -0.05933042703087617,
          -0.19004142489048445
        ],
        [
          -0.15610622607627814,
          -0.040898182735460996,
          -0.0202245339790502,
          0.17604565758468219,
          -0.01999503660856588,
          -0.025469268039373584,
          0.10557492572633595,
          0.009514602177748672,
          0.17139064639988974,
          0.020761557848175374,
          0.12473075924886372,
          0.02568778615135014,
          0.06646895261206497,
          0.025557120859057623,
          0.042423610066932,
          0.10757944919042016,
          0.09654835890148657,
          -0.0987418209521996,
          0.1415111712896452,
          -0.14016261134151833,
          0.05221285440276167,
          -0.07579321577465865,
          -0.17784192586083883,
          -0.11581330036839778,
          -0.1324233113797386,
          0.14103839448388555,
          0.09219770122510447,
          -0.04380395841748159,
          0.025963196650778054,
          0.11005153682975145,
          -0.050803235109787015,
          -0.05256365973066907
        ],
        [
          0.10423449800463995,
          0.12094825641016492,
          -0.2239217269911089,
          0.033795936212132525,
          0.03857671690846064,
          -0.005187657562783743,
          -0.0927473482192972,
          -0.04076725305079596,
          0.007053891288876495,
          -0.06975940037689686,
          0.16295657025511237,
          0.017342705137358732,
          -0.1123669582749979,
          -0.07905109950606284,
          0.10142549444736793,
          -0.04473000237854616,
          0.07389456386471788,
          -0.028822360978119393,
          -0.01931144959282827,
          0.10838807381913647,
          -0.07629691685642709,
          0.05996926935085964,
          -0.12244374216701663,
          -0.14682896389582567,
          0.09651767719848323,
          -0.1329477827933147,
          -0.08009019646962372,
          0.15011471469883797,
          0.15135489902697216,
          -0.016665485683027486,
          0.16425871969284808,
          -0.08419861111987578
        ],
        [
          0.0868450215775625,
          -0.13513522054356353,
          -0.11400887335887863,
          -0.05174935684315405,
          0.03774922516398218,
          0.15216298715756665,
          -0.08173063583592817,
          0.06579193290281789,
          -0.06895430055575667,
          0.09427037287847671,
          0.07684838983368687,
          -0.1922760707899099,
          0.08157825083146371,
          0.003949358978825354,
          0.005956491620327311,
          -0.07284520206926863,
          -0.0765867303864059,
          0.0022276103637963673,
          0.08392212924296556,
          -0.11675191180318986,
          -0.08409406298927925,
          0.030980294948597525,
          -0.10542498495520532,
          0.08357671989549077,
          -0.0057052427162535,
          0.16248908424469605,
          -0.18788333348137937,
          0.12745675382978172,
          -0.06770798046849151,
          -0.19586635992863186,
          -0.07442551968765979,
          -0.11038808379521828
        ],
        [
          0.13611552204757252,
          -0.10187176805504705,
          -0.022622603653234135,
          0.1275391206646592,
          0.04861512255628066,
          -0.20184777840382054,
          0.06492435760502131,
          0.06215253861382232,
          -0.00447989755065975,
          -0.10456002392494912,
          0.003991132688855018,
          -0.060919042342428315,
          -0.1092943042463133,
          -0.03910693447012757,
          -0.01632596877428983,
          -0.02070489199473219,
          0.17114560365146234,
          0.16362774857750081,
          -0.1493733732569853,
          -0.09097209610878691,
          0.03231392742191453,
          0.040568553702992685,
          -0.14475846374016413,
          -0.16555072422065079,
          -0.08435947385138,
          0.031181530065583895,
          0.02209363809856365,
          -0.031810784137562234,
          0.11438075965367334,
          0.007066768494324842,
          0.00036924537182968193,
          -0.045448322681712665
        ],
        [
          0.071588409349106,
          -0.04840910409510112,
          -0.20354488495280554,
          0.04219169064328375,
          -0.034259753751131015,
          -0.1073098034086413,
          -0.13988750915953788,
          0.09460373164187019,
          0.15290269721539443,
          0.1232249446599937,
          -0.07195293393885538,
          -0.037230653229482026,
          0.13038776034838143,
          -0.012039362253926511,
          0.017350081043344148,
          -0.07073175728551219,
          0.03551508937823584,
          -0.1778449960644805,
          0.14739289113498974,
          -0.0348076450951132,
          -0.13318999304287504,
          0.010827021964122387,
          -0.024290932392417745,
          -0.006715766733561528,
          -0.12447172972372435,
          0.23018630336123005,
          -0.14489334357676398,
          0.04801064491995124,
          0.10552659166180238,
          -0.17221190726541497,
          -0.15324058995953554,
          -0.08575371996059462
        ],
        [
          -0.02940781802405713,
          0.017287155065806168,
          -0.19560753482546625,
          0.004904208292337538,
          -0.13355317106956546,
          0.05153234489191482,
          0.002455044654578493,
          0.1570307677732234,
          -0.016826587622170826,
          0.07631615464944423,
          0.17487325954384123,
          0.056734528486343326,
          -0.10193164287039008,
          -0.0316902254399698,
          -0.011475607137793014,
          0.062115446134509485,
          0.11284887048214406,
          -0.1923708068209448,
          0.1772553952074206,
          -0.22179249573413679,
          0.053685416469120124,
          -0.05279407457534076,
          0.01809527689290374,
          0.06554444365965795,
          -0.14449010822048963,
          0.0436075931847271,
          -0.12155632270247596,
          0.050304233498957046,
          -0.107410203710128,
          -0.009547362808365293,
          0.15455578037375495,
          0.03169799942891863
        ],
        [
          0.17045152224374144,
          0.13293782355728734,
          0.11943331180464602,
          -0.13517676006188534,
          0.008541940888296804,
          -0.04912268081163319,
          0.12263370995069335,
          0.12760949077026065,
          -0.15099546171186753,
          0.22950341655438125,
          -0.09983211742804138,
          0.019397354150061684,
          -0.02325400972566173,
          0.0681841313229972,
          0.11870191221549763,
          0.06010689408077091,
          0.11892097846910982,
          0.02438800823050295,
          0.15324154203712737,
          -0.11700113598726368,
          0.07973026828492012,
          0.01962266811966378,
          -0.08070596043744989,
          0.12119855050632652,
          0.09219416220443144,
          0.02819094800986747,
          -0.17926725699395304,
          0.13106305904943316,
          -0.006574705658240032,
          0.06256025928042244,
          -0.1297966640355001,
          -0.08240844401999715
        ],
        [
          -0.007522217369851468,
          0.035773618594646936,
          -0.11741544692419591,
          0.08857001835365637,
          0.14603628975824876,
          -0.18209651000337473,
          -0.13993201674466219,
          -0.06092709944150207,
          -0.03590834179434165,
          0.08473557082143214,
          -0.040126657810950976,
          -0.04811066048438155,
          0.05013682770301175,
          0.04008828730525037,
          -0.040860679435204314,
          -0.12215832775663517,
          -0.13579760763417148,
          0.0620514915622724,
          -0.09621719611871223,
          -0.019160849964148227,
          -0.1447109380799125,
          0.16215688740243553,
          0.08877928968599295,
          0.13865842685006885,
          -0.05524677284194035,
          0.07671509658491171,
          0.04360448496801697,
          0.07966945003587482,
          -0.04081298971600502,
          0.10507483787082758,
          -0.17026682973638357,
          -0.0750613611626331
        ],
        [
          0.11001985093320134,
          -0.050781600065704466,
          0.060903808574885136,
          0.15490199975339417,
          -0.10409867454813863,
          0.14050149643492454,
          0.009275694281130151,
          0.12766838941611616,
          -0.008258418538857613,
          0.005200422922518893,
          -0.03905704355531494,
          -0.125012870479475,
          -0.025166831716376074,
          0.15321521454834383,
          0.04970049494309947,
          0.17230256432581267,
          -0.16723854830338286,
          -0.041643875329127576,
          0.14734973984221791,
          -0.129615994520211,
          -0.08732225969272055,
          0.12251925761834359,
          -0.011391433760071365,
          -0.16168614145185026,
          -0.04760715154896704,
          -0.17533462038780437,
          -0.11027750611318352,
          -0.03254715858945041,
          -0.11619643131434815,
          0.017275758212928125,
          -0.07690797227102522,
          -0.12184872838306816
        ],
        [
          0.11332704655413509,
          0.04772362968109421,
          -0.10006824548383704,
          0.1716219948514374,
          0.0986863409706924,
          0.1657693579658073,
          0.1729887608692507,
          0.020816397351426503,
          -0.12661835500862986,
          0.17387155615806602,
          -0.05614041215966189,
          -0.17251915550131863,
          0.10085180380583497,
          -0.027537251869768402,
          0.025566477258285182,
          0.09276055894362212,
          0.13328072068877989,
          0.03935502278466033,
          0.03463309855865155,
          -0.03145387521439064,
          -0.1289656587046963,
          -0.07905379898092452,
          -0.01123138071884439,
          -0.013774790946881138,
          0.23024216411627535,
          0.10578257935508228,
          -0.12641728685618142,
          -0.016980243476838745,
          0.17727493477244416,
          -0.010933215272503212,
          0.11691926646148547,
          -0.05542060337174159
        ],
        [
          0.07769208975870649,
          0.1677628037386795,
          -0.19905370708276318,
          0.20352823384994248,
          0.04253214386739045,
          0.12709044533905006,
          0.031755760042253035,
          0.06852450073364962,
          -0.13642279563297469,
          0.06161806538352344,
          -0.08544329236892136,
          0.13586573988873737,
          -0.16328512168798326,
          -0.13348127479291522,
          0.10266166602446364,
          -0.20499604953053158,
          0.03564258334611951,
          -0.03271290644155594,
          -0.013871999708971593,
          -0.1179926656287287,
          0.030294782083251905,
          -0.03924951612925159,
          -0.2001604908784713,
          -0.11143044157444403,
          0.16575160861412733,
          -0.09208546182643647,
          -0.03120539195044081,
          -0.12444345852122081,
          0.14866070993239885,
          0.009275494956178623,
          -0.16917012293526806,
          -0.0352186457224669
        ],
        [
          0.1043855353779525,
          -0.13736706893347184,
          -0.07496480907098148,
          -0.04848976994297102,
          0.13168378923048754,
          0.11652922961493603,
          0.20107386781759554,
          0.13451516397036326,
          -0.1587668904407674,
          0.11259360840283171,
          -0.11486726879518035,
          0.009029211196321702,
          -0.06330706115723823,
          0.160692359943746,
          0.03991162215413673,
          0.08383946660139958,
          0.026421012580747985,
          -0.004293004187493277,
          0.09165802616707129,
          -0.015136453143793718,
          0.14997629329894624,
          -0.05473053095338397,
          -0.02391029327443599,
          0.049139801221983345,
          -0.17834202891924839,
          -0.038490466337276055,
          0.014705635853035448,
          -0.09945229323574736,
          -0.006827853824693265,
          0.0800119413483673,
          -0.05815266045873494,
          -0.005320701837369015
        ],
        [
          0.12913411201308198,
          0.011680855029093495,
          0.07749739995411584,
          -0.11789669259098672,
          -0.10471179694063834,
          -0.10798360552051706,
          -0.10956838695878185,
          -0.030744628076742893,
          0.18262003250895614,
          0.17182563305912102,
          0.06745453904745362,
          -0.06588768045331515,
          -0.15648108434407093,
          0.16445444930441536,
          0.10427722952879283,
          0.08477271812428791,
          0.09119730944163025,
          0.11449418097925007,
          0.16384545121420627,
          -0.10901636850826277,
          0.06109759356557239,
          -0.0892492424892827,
          -0.1701596239338516,
          -0.19825404725393084,
          -0.18868154737111834,
          0.030688579774961415,
          -0.2017017361806243,
          0.14483865190635142,
          0.16535332289059607,
          -0.09288352604294803,
          0.17602965315950683,
          0.08363938181733295
        ],
        [
          0.04741845518669969,
          -0.13490517457117077,
          0.12480658862933139,
          -0.0011506452983448938,
          -0.020352675742331485,
          0.17128471076707893,
          0.07639419226721295,
          0.171552930477462,
          -0.015643910093924948,
          -0.05111706021795527,
          -0.024536420878788295,
          -0.009112279861890154,
          0.08089629110959798,
          -0.14589986040719624,
          0.06338959857179165,
          0.16179109004447983,
          -0.10497891301270285,
          0.0038565036084925878,
          0.014605377221587126,
          -0.08466208744033706,
          -0.13690716458426225,
          -0.04105187117869688,
          -0.05808052285713494,
          0.17384014733414024,
          -0.1213980146294954,
          0.07909127285369759,
          0.10487088586227938,
          -0.02297210616011613,
          -0.052241673913921004,
          0.03503282565874193,
          -0.14062924246059932,
          0.027268415179287943
        ],
        [
          0.0678217762843108,
          -0.06559061089605207,
          -0.05712952369671397,
          0.15549900824778842,
          -0.12853229711985464,
          0.05633656607572084,
          -0.02184802483612482,
          0.10142896324371671,
          -0.0024387557658021226,
          -0.11790393628735077,
          0.07940599274656492,
          -0.1585447215348332,
          -0.014107131598455606,
          0.002595865746425128,
          0.09434172268507739,
          0.1079577103670162,
          -0.06934906271133039,
          0.18749396462923681,
          -0.023626678214704353,
          -0.11356196072017594,
          -0.14548486379497536,
          -0.00012369867773192223,
          -0.06764293598230293,
          0.17327178821538786,
          -0.03947084947744262,
          0.11134912614559928,
          -0.06996296914100039,
          -0.10451166373597064,
          -0.007768040337226881,
          -0.0919466530731572,
          0.09689998032520769,
          -0.20310363152797314
        ],
        [
          0.010793931262530752,
          0.18993990498130983,
          -0.07812735283721214,
          0.04967718320868623,
          -0.12339676799205962,
          0.02617087545436545,
          0.006995295813361497,
          0.012501726477001856,
          -0.1713038397592578,
          0.1255908465798336,
          -0.036372543007967294,
          -0.0830705712525076,
          -0.15950263622202068,
          -0.0050810326218988225,
          0.08211358618122011,
          -0.15824225315025475,
          -0.016501555841067467,
          0.08464349364037184,
          -0.05059111489767319,
          0.08615142694129778,
          -0.14265302358055187,
          -0.018922627707351057,
          -0.026202089265888087,
          0.1032614666260225,
          0.2004176997751665,
          0.04154694772327143,
          -0.11510408942647957,
          0.016754310557096537,
          -0.16265940767856207,
          -0.08575623886192327,
          0.16516042404291673,
          -0.0404963753724798
        ],
        [
          -0.11487240006512188,
          0.03351000926474271,
          -0.17839689396013145,
          0.013534807305355254,
          -0.008155452518342206,
          -0.006725396973550465,
          -0.15029089825186628,
          0.03914758941507571,
          -0.014959057960460473,
          0.14009598790641964,
          -0.027407810596716407,
          0.09682165852408657,
          -0.17056815926779628,
          0.09172444550574112,
          -0.0025228278702936224,
          0.07610398687433971,
          0.04129922916499049,
          0.12018674682899254,
          0.007712287298881624,
          -0.1189891756864464,
          0.09174220627818142,
          0.13460983462172313,
          -0.009624891232867557,
          -0.18189270111098607,
          0.07188849254018922,
          0.14849888368317135,
          0.017550672456253903,
          -0.02063654973932226,
          -0.04414035243176936,
          0.11797772867381555,
          -0.15960137522103232,
          -0.16479663405859546
        ],
        [
          0.048598349459717596,
          0.02293582291379332,
          -0.19681338118116296,
          -0.002128951065235933,
          -0.1471405400832171,
          -0.20422277150893972,
          0.008513632540432635,
          0.10706151473503861,
          0.13636381848958398,
          -0.09436417109598239,
          0.1450983220512331,
          0.18964836450963768,
          0.09111436442852691,
          0.10917868996933286,
          -0.044779652485343005,
          -0.09998572741133355,
          -0.10226405538320892,
          -0.19990277856551494,
          0.07708832089628957,
          0.020096229599186454,
          0.1208218158351817,
          0.08778994981579238,
          -0.0629674208765082,
          0.17997479707035846,
          0.09403671288839026,
          -0.21460329973661751,
          0.07962745991166012,
          -0.05948574050686863,
          -0.20215202202725446,
          0.09490691676172325,
          -0.19451851858912228,
          -0.003551758921651694
        ],
        [
          -0.15241669800536986,
          0.12502208700975292,
          -0.08268891200444213,
          -0.13125241950137934,
          -0.045400027643856956,
          0.1391691165244284,
          0.07135378205761093,
          0.08164124313710057,
          -0.06054871996906406,
          0.17795198499821452,
          -0.048630916870019546,
          -0.09778851716523859,
          0.10809200554500457,
          0.06591647175898065,
          -0.16777876550833112,
          -0.05043890408714387,
          -0.12660899026591116,
          -0.03400237556555721,
          0.14055966772906364,
          0.07908957635710004,
          0.1400552210647093,
          -0.19772711169073315,
          0.15020730592556977,
          0.13315242580331665,
          -0.11101946425860616,
          -0.03086202670957783,
          -0.22317096327396085,
          -0.1173087040986037,
          -0.08519940127932792,
          0.12673439827152125,
          -0.10306804716201604,
          0.021392640207341496
        ],
        [
          0.12568053776613683,
          -0.16552313623056944,
          -0.08107151029296601,
          0.16709073536842214,
          -0.05111018961268791,
          0.04545120659782908,
          -0.0310998156247047,
          0.11795218774226149,
          -0.04620352580681125,
          -0.1188951136992015,
          0.1151849033303932,
          -0.16211260663904084,
          -0.1889072665880571,
          -0.03402346959437096,
          -0.14525139839449802,
          0.08405685136435245,
          -0.08472044441357424,
          0.04938039190303719,
          -0.009686682116408229,
          0.0013033769660036516,
          -0.11993823782959417,
          0.06930984416756512,
          -0.18339665462951565,
          -0.16681079737922677,
          0.04966191311498707,
          0.025821405549378108,
          0.003169786551837898,
          0.1071607154866918,
          0.06997276081317787,
          -0.08381212831641349,
          -0.01728656553586677,
          0.000184377780647852
        ],
        [
          -0.15303574789739147,
          -0.1552188293847177,
          -0.10460869472711645,
          0.04171522514598407,
          -0.10611419260094927,
          0.11029034255519106,
          0.07353385950383678,
          0.10768377712447275,
          -0.14059232659134901,
          0.031630273857934425,
          -0.01094728709726297,
          -0.08844313236900722,
          0.06436625031735639,
          -0.14170703898219486,
          -0.1335675126582086,
          -0.10169551979268965,
          0.095607278663523,
          0.09312072875608912,
          -0.1367600963720165,
          0.04871216538990133,
          0.15853784761354392,
          -0.08260525824395958,
          -0.08356413503200513,
          0.014042151089212914,
          -0.005697646902074095,
          0.10117357813748226,
          0.015020231099102796,
          0.11633836677053538,
          0.10480059282046846,
          -0.18145115116642843,
          -0.13542862087476093,
          -0.028017873570534348
        ],
        [
          0.015549484976234564,
          0.16611129745148026,
          -0.11040461641077065,
          -0.1080413582774097,
          0.12580659641597638,
          0.10899425466518123,
          0.1019219266953168,
          -0.01659451041717157,
          -0.06430290405859926,
          0.11432647236809844,
          -0.004713674790379304,
          0.050821721454779194,
          -0.06271059288903419,
          0.1632390194809902,
          -0.025128145836765113,
          -0.11618926266673074,
          0.10733068832023293,
          -0.18465580745628568,
          0.02997889047186812,
          -0.1137911637836777,
          -0.0011227595737201982,
          0.0781491448424435,
          -0.1492334745497169,
          -0.19178497126152863,
          0.07582155424352802,
          -0.09366973700684203,
          -0.018099982787679936,
          -0.08620432020905965,
          0.0706259947727114,
          -0.041017606239635164,
          0.17018017235805782,
          -0.004137552046174251
        ],
        [
          0.12971906940974118,
          -0.13150383741251542,
          0.058996953789807106,
          0.02299374243232493,
          0.17068510955484303,
          0.03724025644276855,
          -0.0750570361800839,
          0.06335950161728011,
          -0.15011321734739025,
          0.029596664670405802,
          -0.04629229314015475,
          0.02062218344789281,
          -0.04513336656556042,
          0.07730089982774005,
          -0.10692964379117754,
          -0.07839143000156949,
          0.05899276532075099,
          -0.054154227125629444,
          0.01187780849411779,
          -0.12822428308662334,
          -0.061735051179578775,
          -0.04204758894917794,
          0.014136804839712597,
          0.03420602355963689,
          -0.11920733280778142,
          0.09141627912821254,
          -0.13587645446681793,
          -0.15942859759324715,
          0.1725958756973238,
          0.010053484710627761,
          0.010836148295251181,
          -0.062209651740589525
        ],
        [
          -0.13576506938740004,
          0.036429385751335155,
          -0.12088673009577496,
          -0.05275217020257111,
          0.06066068717195775,
          -0.0396778488293487,
          0.10036134657267151,
          0.10266420151533012,
          -0.08765001586017866,
          0.09527066535063594,
          0.14009411200174937,
          0.1629461618977242,
          -0.19047026361121233,
          -0.12640603762855984,
          -0.05565102047229225,
          -0.19018412354370778,
          0.11689242480075292,
          -0.17214536330450417,
          0.07613465285836858,
          0.11705758159684262,
          0.08137361654162313,
          -0.08829219170481853,
          0.013301764672351142,
          0.06618181287026878,
          0.06375402757076987,
          0.05196436581592515,
          0.13673868595863536,
          -0.0899675362699081,
          0.104272897306676,
          0.05114252631483887,
          0.1569493058100656,
          0.01600300052851966
        ],
        [
          0.027904421940525195,
          -0.10076404436520764,
          0.09471407587635298,
          0.06387689584487809,
          -0.12393035832843997,
          -0.19484313686018423,
          -0.12424535380786325,
          -0.06719063932432454,
          -0.19246967006227353,
          -0.061464028770608345,
          0.2062571565625028,
          0.07179734911143368,
          -0.1644307050552741,
          -0.12675112306732406,
          -0.09786881164865757,
          -0.1578444770189991,
          -0.026622640607532735,
          0.01741360782442647,
          0.2027192135473472,
          -0.007442058903282049,
          -0.10077997932977523,
          -0.023773143027973998,
          -0.15775994070271354,
          -0.1731439147061846,
          -0.19605843942751874,
          0.022693073047503023,
          -0.22571491668625857,
          -0.015348796406506158,
          -0.14156844243573127,
          0.0059237845114529395,
          0.04509472857695997,
          -0.2509858369595756
        ],
        [
          -0.11621450635773013,
          0.038551271384815206,
          -0.19708683485241144,
          0.07785421029406116,
          0.06603269941344651,
          0.15650882318661824,
          -0.07885589428346881,
          0.0005461185685347064,
          0.11298744415591296,
          -0.043757094794441335,
          0.04176325234726168,
          0.01750678529883809,
          0.03338256531165867,
          0.045525112016424174,
          -0.046127831545812535,
          -0.1004255938530069,
          -0.08387789651714492,
          0.18245129900173104,
          -0.13753742805597793,
          -0.0007784471712818867,
          0.02528589388500729,
          -0.08514716512386397,
          -0.11088248159236606,
          -0.14903025873277184,
          0.01128346326552688,
          -0.016278395743361592,
          0.002975530265580184,
          -0.06821611303530614,
          0.0014398831375287057,
          0.1272168734905243,
          -0.1465437021564703,
          0.022321950729930345
        ],
        [
          -0.041795323810766366,
          0.18458381941774638,
          0.11015695675988757,
          -0.07526958482891585,
          0.143705550102211,
          0.034044638127707874,
          -0.06896717617097595,
          -0.07628960953346274,
          0.021174442538893088,
          0.1140232206482188,
          0.026707209441686097,
          0.1449768735078557,
          -0.04613888653501693,
          -0.022011517234619832,
          -0.046062606096391435,
          0.06637728787433987,
          0.05506387824412911,
          0.074747361064464,
          -0.048413109215798854,
          0.007777435028582802,
          -0.08683066575079579,
          -0.02548642909505199,
          0.12680135675938822,
          -0.029464226887118056,
          -0.15472268705773698,
          0.06309530349896762,
          -0.16424308402159873,
          -0.0813113960334647,
          -0.15159419959948187,
          -0.029423159664272572,
          -0.12493339748972747,
          -0.1990813970745148
        ],
        [
          -0.05630853097359673,
          -0.05106915567675241,
          0.04772976542516173,
          -0.10281922659726836,
          0.053460900708430105,
          0.0025611924311950665,
          -0.07313991112366483,
          -0.031040813646116255,
          0.04817938044299056,
          0.14576630374321362,
          -0.15050042107701567,
          0.12113593634746894,
          -0.0712678835830652,
          0.15756190168045608,
          -0.18682004890067597,
          0.10389314370048394,
          0.055508949814050745,
          -0.18751353211385302,
          -0.16104743276700184,
          -0.088737075822883,
          0.11366134312952125,
          -0.17747161392617536,
          -0.06149501128111065,
          -0.17251306244936004,
          -0.02492346794775172,
          0.08355462195426945,
          0.06703253388399309,
          -0.07786003181941369,
          0.1489070988394618,
          0.10798851653523721,
          -0.0315592476231899,
          -0.16350084250893918
        ],
        [
          0.08363200410817477,
          -0.10703016474251312,
          -0.05246723493604017,
          -0.012926113570577696,
          -0.08317843320600506,
          0.1304965124583427,
          -0.014443152820740943,
          0.14448633264416305,
          -0.10586696219079973,
          -0.014465055427948712,
          0.037232021623136276,
          0.043798206331160223,
          -0.001284944988567664,
          0.030543366346154538,
          -0.01578466510426013,
          0.003198831542040643,
          -0.009211502948907985,
          -0.008914386977978889,
          0.023670415095357736,
          0.03491481743312919,
          0.12602122173767957,
          -0.1726137006215663,
          -0.02653513827952022,
          0.1594426913438258,
          -0.0004499334783541929,
          -0.05135471091375849,
          -0.12574379452387577,
          -0.0590398415347189,
          0.09219469528485852,
          -0.09030377760900046,
          -0.16564823038260446,
          -0.16567388060524968
        ],
        [
          -0.031247672195308357,
          0.06817693492828203,
          -0.01189707560691011,
          -0.06151748045706467,
          0.07967103583035066,
          0.06963103790235717,
          -0.07314648089029356,
          0.031953854916965244,
          -0.12494425044777574,
          -0.07968404274779979,
          0.11870048720150002,
          0.04455845988759346,
          0.06591945150209708,
          -0.12215871051519521,
          -0.05518221013473547,
          0.04028087015208285,
          -0.024936507837005184,
          0.012952548993012881,
          0.03428467314192418,
          -0.01757763539854568,
          -0.01852570215823428,
          -0.07496265418953889,
          0.15740082239740083,
          -0.050093025111645685,
          -0.00942253034348944,
          -0.06011959471593052,
          0.10184773604464024,
          -0.17048254176522398,
          0.10768256829627687,
          -0.2090612781585258,
          0.054587512436368064,
          -0.04521572427518195
        ],
        [
          -0.14565998391868634,
          0.08902249733897816,
          -0.1169194562012747,
          -0.03348195674818933,
          0.1352290839495904,
          -0.16049779061294248,
          0.13919427172325374,
          0.13752342416472021,
          0.0728865406015585,
          0.12636694083090358,
          -0.056837953134804046,
          -0.15746793543344728,
          0.005473148897870998,
          0.10444517054329436,
          -0.06653389598050694,
          -0.1540783734204291,
          -0.07414540441531238,
          -0.1457499665185178,
          -0.0931725142734321,
          0.06922829016655911,
          -0.03003155396945752,
          0.1043662601715158,
          -0.18073617660426589,
          0.013352939966498842,
          -0.05022804574851063,
          0.0982717903928757,
          -0.1126023769416639,
          0.12294615729874585,
          -0.07462021091742015,
          0.05956939550158307,
          -0.09015417510367152,
          -0.2672487599925214
        ],
        [
          0.06698159339344274,
          -0.13176760430578416,
          -0.14160029179789324,
          0.12753493795259493,
          -0.0592020284114671,
          -0.0677993540765365,
          -0.005264489792439033,
          0.029444783398297855,
          -0.03833846234060037,
          -0.033107532046542015,
          0.12330567523134683,
          -0.15895427589678968,
          0.11529145813636867,
          -0.20200564814666555,
          -0.07572763784114307,
          0.1376569770691665,
          0.11623842465713623,
          -0.07258404935128829,
          0.12115506054924255,
          0.07592117125398189,
          -0.12370610672975549,
          -0.0503866367346695,
          0.07765817794087752,
          -0.1658593529345474,
          0.12866430076818347,
          0.11976530733739194,
          -0.04131733581787251,
          -0.07268408845508095,
          -0.1543419761633241,
          -0.1316903873930597,
          -0.07913802031889032,
          -0.010942911147298989
